svm_type c_svc
kernel_type polynomial
degree 3
gamma 8
coef0 0
nr_class 3
total_sv 9
rho -1.1357583700277185 -1.184384534925593 -6.4009571054086436
label 0 1 2
nr_sv 4 2 3
SV
2.7119179757138285e-07 1.5503942698241167e-08 1:5.1 2:3.3 3:1.7 4:0.5 
0 1.9144879751711285e-08 1:4.8 2:3.4 3:1.9 4:0.2 
1.5557959587278809e-08 0 1:4.5 2:2.3 3:1.3 4:0.3 
0 2.0794669676429208e-08 1:5.1 2:3.8 3:1.9 4:0.4 
-0 2.6892588968388087e-05 1:6 2:2.7 3:5.1 4:1.6 
-2.8674975715866162e-07 0 1:5.1 2:2.5 3:3 4:1.1 
-5.5443492126381657e-08 -7.3393285875147756e-06 1:4.9 2:2.5 3:4.5 4:1.7 
-0 -1.1862381163315377e-05 1:6.5 2:3 3:5.5 4:1.8 
-0 -7.6908792175579463e-06 1:6 2:2.2 3:5 4:1.5 
