svm_type c_svc
kernel_type polynomial
degree 3
gamma 2
coef0 0
nr_class 3
total_sv 9
rho -1.1357583700277185 -1.184384534925593 -6.4009571054086436
label 0 1 2
nr_sv 4 2 3
SV
1.7356275044568502e-05 9.9225233268743468e-07 1:5.1 2:3.3 3:1.7 4:0.5 
0 1.2252723041095223e-06 1:4.8 2:3.4 3:1.9 4:0.2 
9.9570941358584378e-07 0 1:4.5 2:2.3 3:1.3 4:0.3 
0 1.3308588592914693e-06 1:5.1 2:3.8 3:1.9 4:0.4 
-0 0.0017211256939768376 1:6 2:2.7 3:5.1 4:1.6 
-1.8351984458154344e-05 0 1:5.1 2:2.5 3:3 4:1.1 
-3.548383496088426e-06 -0.00046971702960094564 1:4.9 2:2.5 3:4.5 4:1.7 
-0 -0.00075919239445218414 1:6.5 2:3 3:5.5 4:1.8 
-0 -0.00049221626992370857 1:6 2:2.2 3:5 4:1.5 
