svm_type c_svc
kernel_type polynomial
degree 3
gamma 1
coef0 0
nr_class 3
total_sv 9
rho -1.1357583700277185 -1.184384534925593 -6.4009571054086436
label 0 1 2
nr_sv 4 2 3
SV
0.00013885020035654802 7.9380186614994774e-06 1:5.1 2:3.3 3:1.7 4:0.5 
0 9.8021784328761781e-06 1:4.8 2:3.4 3:1.9 4:0.2 
7.9656753086867502e-06 0 1:4.5 2:2.3 3:1.3 4:0.3 
0 1.0646870874331755e-05 1:5.1 2:3.8 3:1.9 4:0.4 
-0 0.013769005551814701 1:6 2:2.7 3:5.1 4:1.6 
-0.00014681587566523475 0 1:5.1 2:2.5 3:3 4:1.1 
-2.8387067968707408e-05 -0.0037577362368075651 1:4.9 2:2.5 3:4.5 4:1.7 
-0 -0.0060735391556174731 1:6.5 2:3 3:5.5 4:1.8 
-0 -0.0039377301593896685 1:6 2:2.2 3:5 4:1.5 
