svm_type c_svc
kernel_type polynomial
degree 3
gamma 7
coef0 0
nr_class 3
total_sv 9
rho -1.1357594357406089 -1.1840817168276687 -6.3977894227307441
label 0 1 2
nr_sv 4 2 3
SV
4.0481107785842175e-07 2.3272713434777218e-08 1:5.1 2:3.3 3:1.7 4:0.5 
0 2.8424012035205132e-08 1:4.8 2:3.4 3:1.9 4:0.2 
2.3223651672103175e-08 0 1:4.5 2:2.3 3:1.3 4:0.3 
0 3.1066396808607141e-08 1:5.1 2:3.8 3:1.9 4:0.4 
-0 4.0126357839969558e-05 1:6 2:2.7 3:5.1 4:1.6 
-4.2803472953052501e-07 0 1:5.1 2:2.5 3:3 4:1.1 
-8.2763122278589484e-08 -1.0951035742831144e-05 1:4.9 2:2.5 3:4.5 4:1.7 
-0 -1.769985181233272e-05 1:6.5 2:3 3:5.5 4:1.8 
-0 -1.1475470284805643e-05 1:6 2:2.2 3:5 4:1.5 
