svm_type c_svc
kernel_type polynomial
degree 3
gamma 3
coef0 0
nr_class 3
total_sv 9
rho -1.1346030625629968 -1.184384961988096 -6.399917520343366
label 0 1 2
nr_sv 4 2 3
SV
5.1439352079055006e-06 2.9400236680036431e-07 1:5.1 2:3.3 3:1.7 4:0.5 
0 3.6304344987290543e-07 1:4.8 2:3.4 3:1.9 4:0.2 
2.933015836309615e-07 0 1:4.5 2:2.3 3:1.3 4:0.3 
0 3.9432693053525234e-07 1:5.1 2:3.8 3:1.9 4:0.4 
-0 0.00050985710152950199 1:6 2:2.7 3:5.1 4:1.6 
-5.4372367915364619e-06 0 1:5.1 2:2.5 3:3 4:1.1 
-1.0513727472085221e-06 -0.00013914745768272546 1:4.9 2:2.5 3:4.5 4:1.7 
-0 -0.00022490001261741513 1:6.5 2:3 3:5.5 4:1.8 
-0 -0.00014580963122936075 1:6 2:2.2 3:5 4:1.5 
