svm_type c_svc
kernel_type linear
nr_class 3
total_sv 13
rho -1.4528444969775751 -1.5077131251781049 -5.4504643721003037
label 0 1 2
nr_sv 3 6 4
SV
0.67075289031035201 0.04382041507584284 1:5.1 2:3.3 3:1.7 4:0.5 
0 0.15987208671811695 1:4.8 2:3.4 3:1.9 4:0.2 
0.07709756347590406 0 1:4.5 2:2.3 3:1.3 4:0.3 
-0 0.77436982390700737 1:6.2 2:2.2 3:4.5 4:1.5 
-0 7 1:5.9 2:3.2 3:4.8 4:1.8 
-0 7 1:6.3 2:2.5 3:4.9 4:1.5 
-0 1.6796812023834555 1:6.7 2:3 3:5 4:1.7 
-0 7 1:6 2:2.7 3:5.1 4:1.6 
-0.74785045378625603 0 1:5.1 2:2.5 3:3 4:1.1 
-0.20369250179395978 -4.3557102209406695 1:4.9 2:2.5 3:4.5 4:1.7 
-0 -7 1:6.5 2:3.2 3:5.1 4:2 
-0 -5.0983408053497898 1:6.5 2:3 3:5.5 4:1.8 
-0 -7 1:6 2:2.2 3:5 4:1.5 
