svm_type c_svc
kernel_type polynomial
degree 3
gamma 5
coef0 0
nr_class 3
total_sv 9
rho -1.1357598525642592 -1.1840817662353302 -6.3998922793212261
label 0 1 2
nr_sv 4 2 3
SV
1.1108013393737498e-06 6.3862034898291474e-08 1:5.1 2:3.3 3:1.7 4:0.5 
0 7.7994254665268251e-08 1:4.8 2:3.4 3:1.9 4:0.2 
6.3725869335441431e-08 0 1:4.5 2:2.3 3:1.3 4:0.3 
0 8.5245712119435585e-08 1:5.1 2:3.8 3:1.9 4:0.4 
-0 0.00011013339046015825 1:6 2:2.7 3:5.1 4:1.6 
-1.1745272087091914e-06 0 1:5.1 2:2.5 3:3 4:1.1 
-2.271020016829953e-07 -3.0056761392912292e-05 1:4.9 2:2.5 3:4.5 4:1.7 
-0 -4.858005607151764e-05 1:6.5 2:3 3:5.5 4:1.8 
-0 -3.1496572995728181e-05 1:6 2:2.2 3:5 4:1.5 
