svm_type c_svc
kernel_type polynomial
degree 3
gamma 6
coef0 0
nr_class 3
total_sv 9
rho -1.1346030625629968 -1.184384961988096 -6.399917520343366
label 0 1 2
nr_sv 4 2 3
SV
6.4299190098818757e-07 3.6750295850045539e-08 1:5.1 2:3.3 3:1.7 4:0.5 
0 4.5380431234113178e-08 1:4.8 2:3.4 3:1.9 4:0.2 
3.6662697953870187e-08 0 1:4.5 2:2.3 3:1.3 4:0.3 
0 4.9290866316906543e-08 1:5.1 2:3.8 3:1.9 4:0.4 
-0 6.3732137691187749e-05 1:6 2:2.7 3:5.1 4:1.6 
-6.7965459894205774e-07 0 1:5.1 2:2.5 3:3 4:1.1 
-1.3142159340106526e-07 -1.7393432210340683e-05 1:4.9 2:2.5 3:4.5 4:1.7 
-0 -2.8112501577176892e-05 1:6.5 2:3 3:5.5 4:1.8 
-0 -1.8226203903670093e-05 1:6 2:2.2 3:5 4:1.5 
