svm_type c_svc
kernel_type polynomial
degree 3
gamma 15
coef0 0
nr_class 3
total_sv 9
rho -1.135759364730456 -1.1834297879199114 -6.3996405315852964
label 0 1 2
nr_sv 4 2 3
SV
4.1140774939722715e-08 2.2673218733539653e-09 1:5.1 2:3.3 3:1.7 4:0.5 
0 2.9460230336787611e-09 1:4.8 2:3.4 3:1.9 4:0.2 
2.3602157391951264e-09 0 1:4.5 2:2.3 3:1.3 4:0.3 
0 3.1977565073474484e-09 1:5.1 2:3.8 3:1.9 4:0.4 
-0 4.0788437309459764e-06 1:6 2:2.7 3:5.1 4:1.6 
-4.3500990678917842e-08 0 1:5.1 2:2.5 3:3 4:1.1 
-8.4111014143801735e-09 -1.1131796855837924e-06 1:4.9 2:2.5 3:4.5 4:1.7 
-0 -1.7991964169782862e-06 1:6.5 2:3 3:5.5 4:1.8 
-0 -1.1664676283839053e-06 1:6 2:2.2 3:5 4:1.5 
