svm_type c_svc
kernel_type polynomial
degree 3
gamma 13
coef0 0
nr_class 3
total_sv 9
rho -1.134604372527426 -1.1843840770990508 -6.4006601307243018
label 0 1 2
nr_sv 4 2 3
SV
6.3216247516227444e-08 3.6132375509456017e-09 1:5.1 2:3.3 3:1.7 4:0.5 
0 4.461518901478392e-09 1:4.8 2:3.4 3:1.9 4:0.2 
3.6045526301239281e-09 0 1:4.5 2:2.3 3:1.3 4:0.3 
0 4.8460745870354756e-09 1:5.1 2:3.8 3:1.9 4:0.4 
-0 6.2675371681027458e-06 1:6 2:2.7 3:5.1 4:1.6 
-6.6820800146351361e-08 0 1:5.1 2:2.5 3:3 4:1.1 
-1.2920831039459471e-08 -1.7104813552821632e-06 1:4.9 2:2.5 3:4.5 4:1.7 
-0 -2.7646153812613016e-06 1:6.5 2:3 3:5.5 4:1.8 
-0 -1.7924404315592829e-06 1:6 2:2.2 3:5 4:1.5 
