svm_type c_svc
kernel_type rbf
gamma 1
nr_class 3
total_sv 36
rho 0.10723756689367678 0.24365767925003606 0.10479935919183321
label 0 1 2
nr_sv 8 14 14
SV
0.12200804634031966 0.15618987968329845 1:4.3 2:3 3:1.1 4:0.1 
0.36733212263850745 0.41605355342726469 1:5.8 2:4 3:1.2 4:0.2 
0.62919628233828573 0.70427014218056172 1:5.7 2:4.4 3:1.5 4:0.4 
0.12551190394702608 0.1386081408338381 1:5.4 2:3.4 3:1.7 4:0.2 
0.49525358398145014 0.56393406436840998 1:4.6 2:3.6 3:1 4:0.2 
0.4172426381426193 0.41450279635451132 1:4.8 2:3.4 3:1.9 4:0.2 
0.86805399080552481 0.95805244572674497 1:4.5 2:2.3 3:1.3 4:0.3 
0.1195532343468466 0.14771155684968584 1:5.1 2:3.8 3:1.9 4:0.4 
-0.64523071845262681 0 1:7 2:3.2 3:4.7 4:1.4 
-0 0.91149039687955136 1:6.9 2:3.1 3:4.9 4:1.5 
-0 0.37431036787309241 1:5.2 2:2.7 3:3.9 4:1.4 
-0.3729761442216451 0.65609590250634053 1:5 2:2 3:3.5 4:1 
-0.33362969361147432 0 1:6 2:2.2 3:4 4:1 
-0.12061513092645913 0 1:5.6 2:2.9 3:3.6 4:1.3 
-0.2138375954875695 0.98606750682498223 1:6.2 2:2.2 3:4.5 4:1.5 
-0.040956716469525797 1 1:5.9 2:3.2 3:4.8 4:1.8 
-0 1 1:6.3 2:2.5 3:4.9 4:1.5 
-0.022436837679569568 1 1:6.7 2:3 3:5 4:1.7 
-0.29975746861032709 1 1:6 2:2.7 3:5.1 4:1.6 
-0.32672967720541912 1 1:5.4 2:3 3:4.5 4:1.5 
-0.18033108065144055 0 1:6 2:3.4 3:4.5 4:1.6 
-0.58765073922452282 0.55011122180354688 1:5.1 2:2.5 3:3 4:1.1 
-0.36951710501684842 -0 1:6.3 2:3.3 3:6 4:2.5 
-0 -1 1:5.8 2:2.7 3:5.1 4:1.9 
-0.61795037481651827 -1 1:4.9 2:2.5 3:4.5 4:1.7 
-0.089444622988923583 -0.10449116631520892 1:7.3 2:2.9 3:6.3 4:1.8 
-0.28492258783638369 -0 1:6.7 2:2.5 3:5.8 4:1.8 
-0.17715814816803108 -0.23104116576455114 1:7.2 2:3.6 3:6.1 4:2.5 
-0.26913925820436008 -1 1:6.5 2:3.2 3:5.1 4:2 
-0 -1 1:6.4 2:2.7 3:5.3 4:1.9 
-0 -0.90469151682780069 1:5.7 2:2.5 3:5 4:2 
-0.25486445368610383 -0 1:5.8 2:2.8 3:5.1 4:2.4 
-0 -1 1:6.5 2:3 3:5.5 4:1.8 
-0.49157155387430657 -0.58040891538270722 1:7.7 2:3.8 3:6.7 4:2.2 
-0.5423327059058386 -0.65744263159724525 1:7.7 2:2.6 3:6.9 4:2.3 
-0.40242176892700121 -1 1:6 2:2.2 3:5 4:1.5 
