svm_type c_svc
kernel_type linear
nr_class 3
total_sv 15
rho -1.4528444969775751 -1.5077131251781049 -4.7225567928720951
label 0 1 2
nr_sv 3 7 5
SV
0.67075289031035201 0.04382041507584284 1:5.1 2:3.3 3:1.7 4:0.5 
0 0.15987208671811695 1:4.8 2:3.4 3:1.9 4:0.2 
0.07709756347590406 0 1:4.5 2:2.3 3:1.3 4:0.3 
-0 0.90615120945701866 1:6.2 2:2.2 3:4.5 4:1.5 
-0 4 1:5.9 2:3.2 3:4.8 4:1.8 
-0 4 1:6.3 2:2.5 3:4.9 4:1.5 
-0 1.5099964705686966 1:6.7 2:3 3:5 4:1.7 
-0 4 1:6 2:2.7 3:5.1 4:1.6 
-0 1.7484885625614544 1:5.4 2:3 3:4.5 4:1.5 
-0.74785045378625603 0 1:5.1 2:2.5 3:3 4:1.1 
-0.20369250179395978 -4 1:4.9 2:2.5 3:4.5 4:1.7 
-0 -4 1:6.5 2:3.2 3:5.1 4:2 
-0 -0.16463624258716827 1:6.4 2:2.7 3:5.3 4:1.9 
-0 -4 1:6.5 2:3 3:5.5 4:1.8 
-0 -4 1:6 2:2.2 3:5 4:1.5 
