svm_type c_svc
kernel_type polynomial
degree 3
gamma 14
coef0 0
nr_class 3
total_sv 9
rho -1.1357594357406089 -1.1840817168276687 -6.3977894227307441
label 0 1 2
nr_sv 4 2 3
SV
5.0601384732302719e-08 2.9090891793471522e-09 1:5.1 2:3.3 3:1.7 4:0.5 
0 3.5530015044006415e-09 1:4.8 2:3.4 3:1.9 4:0.2 
2.9029564590128969e-09 0 1:4.5 2:2.3 3:1.3 4:0.3 
0 3.8832996010758926e-09 1:5.1 2:3.8 3:1.9 4:0.4 
-0 5.0157947299961948e-06 1:6 2:2.7 3:5.1 4:1.6 
-5.3504341191315626e-08 0 1:5.1 2:2.5 3:3 4:1.1 
-1.0345390284823686e-08 -1.3688794678538929e-06 1:4.9 2:2.5 3:4.5 4:1.7 
-0 -2.21248147654159e-06 1:6.5 2:3 3:5.5 4:1.8 
-0 -1.4344337856007054e-06 1:6 2:2.2 3:5 4:1.5 
