svm_type c_svc
kernel_type polynomial
degree 3
gamma 9
coef0 0
nr_class 3
total_sv 9
rho -1.1357594403530233 -1.1840815805396585 -6.4010170492820224
label 0 1 2
nr_sv 4 2 3
SV
1.9046659625097072e-07 1.0950271174641246e-08 1:5.1 2:3.3 3:1.7 4:0.5 
0 1.3373497289962424e-08 1:4.8 2:3.4 3:1.9 4:0.2 
1.0926918154044396e-08 0 1:4.5 2:2.3 3:1.3 4:0.3 
0 1.4616905159257319e-08 1:5.1 2:3.8 3:1.9 4:0.4 
-0 1.8886553800765827e-05 1:6 2:2.7 3:5.1 4:1.6 
-2.013935144050151e-07 0 1:5.1 2:2.5 3:3 4:1.1 
-3.8940673623860991e-08 -5.1544142763912122e-06 1:4.9 2:2.5 3:4.5 4:1.7 
-0 -8.330931972409895e-06 1:6.5 2:3 3:5.5 4:1.8 
-0 -5.4012075519647434e-06 1:6 2:2.2 3:5 4:1.5 
