svm_type c_svc
kernel_type polynomial
degree 3
gamma 10
coef0 0
nr_class 3
total_sv 9
rho -1.1357598525642592 -1.1840817662353302 -6.3998922793212261
label 0 1 2
nr_sv 4 2 3
SV
1.3885016742171873e-07 7.9827543622864343e-09 1:5.1 2:3.3 3:1.7 4:0.5 
0 9.7492818331585314e-09 1:4.8 2:3.4 3:1.9 4:0.2 
7.9657336669301789e-09 0 1:4.5 2:2.3 3:1.3 4:0.3 
0 1.0655714014929448e-08 1:5.1 2:3.8 3:1.9 4:0.4 
-0 1.3766673807519781e-05 1:6 2:2.7 3:5.1 4:1.6 
-1.4681590108864893e-07 0 1:5.1 2:2.5 3:3 4:1.1 
-2.8387750210374412e-08 -3.7570951741140365e-06 1:4.9 2:2.5 3:4.5 4:1.7 
-0 -6.072507008939705e-06 1:6.5 2:3 3:5.5 4:1.8 
-0 -3.9370716244660226e-06 1:6 2:2.2 3:5 4:1.5 
