svm_type c_svc
kernel_type polynomial
degree 3
gamma 11
coef0 0
nr_class 3
total_sv 9
rho -1.1357588726416712 -1.1843847588687302 -6.4009174444371535
label 0 1 2
nr_sv 4 2 3
SV
1.0432020984393068e-07 5.9641437678379382e-09 1:5.1 2:3.3 3:1.7 4:0.5 
0 7.3643937583980384e-09 1:4.8 2:3.4 3:1.9 4:0.2 
5.9847423099216684e-09 0 1:4.5 2:2.3 3:1.3 4:0.3 
0 7.999086580099557e-09 1:5.1 2:3.8 3:1.9 4:0.4 
-0 1.0343864218978795e-05 1:6 2:2.7 3:5.1 4:1.6 
-1.1030495215385234e-07 0 1:5.1 2:2.5 3:3 4:1.1 
-2.1327624106335534e-08 -2.8229991995009074e-06 1:4.9 2:2.5 3:4.5 4:1.7 
-0 -4.5627271384888569e-06 1:6.5 2:3 3:5.5 4:1.8 
-0 -2.9581378809890387e-06 1:6 2:2.2 3:5 4:1.5 
