svm_type c_svc
kernel_type polynomial
degree 3
gamma 4
coef0 0
nr_class 3
total_sv 9
rho -1.1357583700277185 -1.184384534925593 -6.4009571054086436
label 0 1 2
nr_sv 4 2 3
SV
2.1695343805710628e-06 1.2403154158592933e-07 1:5.1 2:3.3 3:1.7 4:0.5 
0 1.5315903801369028e-07 1:4.8 2:3.4 3:1.9 4:0.2 
1.2446367669823047e-07 0 1:4.5 2:2.3 3:1.3 4:0.3 
0 1.6635735741143366e-07 1:5.1 2:3.8 3:1.9 4:0.4 
-0 0.0002151407117471047 1:6 2:2.7 3:5.1 4:1.6 
-2.293998057269293e-06 0 1:5.1 2:2.5 3:3 4:1.1 
-4.4354793701105326e-07 -5.8714628700118205e-05 1:4.9 2:2.5 3:4.5 4:1.7 
-0 -9.4899049306523017e-05 1:6.5 2:3 3:5.5 4:1.8 
-0 -6.1527033740463571e-05 1:6 2:2.2 3:5 4:1.5 
